34 128
33 0.096139 -0.020649 -0.065152 0.057726 -0.324024 -0.042659 -0.040222 0.024071 -0.042834 0.152407 -0.247921 0.122974 0.113411 0.072912 -0.017973 0.232048 -0.060822 0.195666 -0.135173 0.215207 -0.021959 0.075375 0.051511 -0.064188 -0.037101 -0.087261 -0.234506 0.177361 -0.070450 -0.079725 -0.222248 0.043107 -0.085202 0.110639 -0.160303 0.106716 -0.089716 -0.124302 -0.126345 -0.101177 -0.073808 -0.220741 0.200935 0.034722 0.171232 0.056036 -0.204013 -0.035698 -0.192310 0.235008 -0.038310 -0.039835 0.124990 -0.055652 0.234290 -0.223009 -0.342329 0.018451 0.166123 -0.123190 0.123754 0.072260 0.091979 0.137026 0.051449 0.369075 0.062599 0.213107 0.132743 0.222820 0.132762 -0.062841 0.018991 -0.024636 0.070064 0.014622 0.016496 0.103982 -0.046914 0.190136 0.154635 0.164177 0.099769 -0.114873 -0.061124 0.198070 0.111530 -0.009074 0.027414 -0.085453 0.160090 0.007194 -0.167018 0.031751 0.004107 -0.200229 0.080544 0.015662 -0.148560 -0.057436 -0.013178 -0.063409 0.057991 0.054189 0.135520 -0.038713 -0.173616 -0.245683 0.278277 -0.237693 0.069037 -0.052655 -0.131641 -0.072469 -0.097292 0.016196 0.189446 0.105693 -0.179796 -0.161863 -0.031752 -0.260069 -0.046198 0.012528 0.229638 0.077838 -0.035844 0.184179
0 0.078944 -0.210230 -0.007103 -0.081374 -0.302689 0.019571 0.061208 -0.103555 0.010691 0.054220 -0.093286 -0.015903 0.118523 0.057655 0.187757 0.173180 0.055407 0.189504 -0.046256 -0.091826 0.110566 -0.219524 -0.055332 -0.156453 -0.043942 -0.030698 -0.060933 0.017492 -0.147994 0.168620 -0.317115 0.063460 -0.090331 -0.102862 0.103856 0.169762 -0.096999 -0.366057 -0.083902 -0.027180 0.199181 0.049416 0.114567 -0.137367 -0.042187 -0.148750 -0.220643 -0.013235 -0.040800 0.245818 0.134808 0.117343 0.006865 -0.154049 -0.184413 0.031066 0.002237 0.117968 -0.123081 0.034989 -0.090710 -0.181214 -0.061843 0.048735 -0.021437 -0.008139 -0.025871 0.014799 0.224672 0.210960 0.056037 -0.037042 -0.131473 0.122616 0.127675 0.079643 -0.031000 -0.114700 -0.101075 0.028754 -0.111097 0.038934 0.179594 -0.009823 0.147947 0.224198 0.073673 -0.101364 0.069255 0.087765 -0.026451 -0.039128 0.063706 0.053380 -0.047587 -0.098703 -0.107520 0.116549 0.009780 -0.094306 0.138089 0.021632 0.160795 0.229202 0.155628 0.101042 -0.046780 -0.068410 0.194005 -0.154642 -0.195791 -0.023169 -0.218691 0.183203 0.079296 -0.133576 0.175350 0.091457 0.071230 -0.095756 -0.006702 -0.317340 0.150096 0.071890 0.444450 0.005276 0.133039 0.188261
32 0.099214 0.011540 -0.084147 0.060193 -0.339840 -0.072472 -0.041261 0.046687 -0.065119 0.149485 -0.267328 0.121955 0.112511 0.081739 -0.048867 0.250141 -0.047135 0.203671 -0.191398 0.248814 -0.033799 0.113782 0.070622 -0.068203 -0.039275 -0.097166 -0.214365 0.215891 -0.073670 -0.089870 -0.205086 0.055211 -0.095214 0.169793 -0.178502 0.119249 -0.129507 -0.107836 -0.118353 -0.096268 -0.076294 -0.261124 0.232312 0.044600 0.208693 0.090923 -0.222827 -0.057436 -0.203861 0.248416 -0.071882 -0.044852 0.165027 -0.052987 0.290385 -0.266468 -0.396033 -0.002715 0.200419 -0.138665 0.146051 0.069525 0.103888 0.160924 0.063177 0.418721 0.061288 0.230260 0.152398 0.208089 0.159059 -0.060678 0.031611 -0.024988 0.078450 -0.016822 0.024004 0.117357 -0.058948 0.216196 0.189332 0.174678 0.090968 -0.145969 -0.104542 0.211130 0.102349 -0.041300 0.035568 -0.096240 0.174432 0.027604 -0.208801 0.021565 0.042209 -0.203194 0.093506 0.006565 -0.164228 -0.079435 -0.022533 -0.096049 0.021887 0.014199 0.160299 -0.052305 -0.234609 -0.284126 0.299589 -0.260393 0.057319 -0.068860 -0.118102 -0.117922 -0.093031 0.030527 0.207639 0.107905 -0.206996 -0.180412 -0.059972 -0.253948 -0.066464 0.002413 0.216244 0.090950 -0.048651 0.189811
2 0.129561 -0.154603 -0.008623 0.023280 -0.314601 0.042896 -0.010587 -0.050924 0.030236 0.137094 -0.161065 0.062925 0.092819 0.054854 0.078642 0.132614 -0.126614 0.206746 0.051276 0.038396 0.019504 -0.108070 -0.056630 -0.069827 -0.041153 -0.048875 -0.257763 0.033128 -0.072953 -0.003028 -0.281784 0.047559 -0.072049 -0.081346 -0.083610 0.107390 -0.012846 -0.210780 -0.123668 -0.120841 -0.009884 -0.089642 0.094311 -0.039244 0.030712 -0.073510 -0.154680 -0.015668 -0.147267 0.198401 0.092582 0.001810 -0.003322 -0.080663 0.001757 -0.052840 -0.148302 0.078274 0.005311 -0.042220 0.020041 -0.015095 0.039195 0.035560 -0.004210 0.190996 0.030505 0.128379 0.151192 0.269954 0.054583 -0.043809 -0.043540 0.035059 0.026397 0.173258 0.006632 0.026648 -0.018651 0.085870 -0.023868 0.170892 0.140819 -0.006814 0.117408 0.197721 0.158358 0.056620 0.025193 -0.022851 0.082882 -0.034928 -0.028866 0.060599 -0.096757 -0.189051 0.002912 0.106513 -0.095929 -0.004049 0.034957 0.026650 0.183010 0.194937 0.094106 0.030340 -0.000555 -0.118576 0.234145 -0.165700 0.043880 -0.036956 -0.197894 0.098208 -0.076021 -0.061240 0.132238 0.099752 -0.032558 -0.082553 0.036166 -0.282220 0.046761 0.070547 0.327423 0.018501 0.043324 0.187718
1 0.116536 -0.208382 0.016433 -0.044405 -0.325560 0.053129 0.065880 -0.113977 0.046131 0.123434 -0.114850 0.007329 0.107015 0.074474 0.180988 0.136601 -0.068964 0.220521 0.087151 -0.092173 0.091966 -0.222733 -0.094735 -0.125993 -0.052233 -0.029526 -0.182336 -0.011653 -0.098275 0.124640 -0.358671 0.069026 -0.085647 -0.153134 0.028166 0.147888 -0.037310 -0.350446 -0.110036 -0.072197 0.116828 0.019920 0.081978 -0.133070 -0.067329 -0.152909 -0.187586 -0.029466 -0.109704 0.219659 0.157582 0.055378 -0.042858 -0.102331 -0.159868 0.003410 -0.052801 0.092405 -0.085401 0.036568 -0.077426 -0.144904 -0.034458 0.005586 0.004824 0.046823 -0.004691 0.045748 0.223814 0.272893 0.026453 -0.054938 -0.101486 0.112251 0.070513 0.201028 -0.007716 -0.067344 -0.065042 0.041357 -0.145717 0.146359 0.184641 0.030322 0.204349 0.222744 0.153162 -0.014651 0.058397 0.092826 -0.008070 -0.057976 0.041982 0.070732 -0.128794 -0.173460 -0.060845 0.162773 -0.038861 -0.015664 0.101408 0.026359 0.207497 0.238055 0.145979 0.085684 -0.002222 -0.067680 0.229435 -0.164675 -0.054130 -0.026019 -0.232126 0.214597 0.009545 -0.123499 0.140905 0.084864 0.073299 -0.063022 0.029734 -0.331839 0.126071 0.078294 0.441394 -0.009521 0.091963 0.227199
31 0.080589 -0.107933 -0.115959 0.037783 -0.336518 -0.007920 -0.109686 0.030218 -0.047106 0.072749 -0.217967 0.122272 0.109952 0.029090 -0.056362 0.212959 -0.010921 0.127153 -0.218468 0.219240 -0.010655 0.008114 0.052772 -0.091059 -0.033883 -0.121507 -0.211628 0.137720 -0.116367 -0.124310 -0.150824 -0.024294 -0.073424 0.083172 -0.059414 0.127146 -0.083203 -0.135090 -0.119246 -0.092534 -0.037405 -0.183126 0.184486 0.069860 0.189099 0.025697 -0.202242 0.032512 -0.085255 0.234231 0.001553 0.031975 0.116667 -0.146146 0.148018 -0.096689 -0.218439 0.083065 0.071780 -0.160937 0.140877 0.086968 0.093456 0.176189 -0.052781 0.304536 0.048702 0.216552 0.106898 0.197963 0.141761 0.014648 -0.048696 -0.032990 0.059498 -0.039156 -0.014628 0.093205 -0.061925 0.144282 0.193324 0.035518 0.065400 -0.148118 -0.088266 0.178833 0.058488 0.019088 0.044494 -0.166525 0.182625 0.045436 -0.080146 0.064544 0.052054 -0.079118 -0.024753 -0.046532 -0.085001 -0.135085 0.036694 0.037696 0.098949 0.143422 0.027596 0.042659 -0.065370 -0.175727 0.186033 -0.172355 -0.063658 -0.030374 -0.157850 -0.090163 -0.078212 -0.023991 0.172252 0.135048 -0.159528 -0.135039 -0.027559 -0.258048 -0.023802 0.097372 0.231926 0.074360 0.071411 0.073566
3 0.131615 -0.229870 0.038552 -0.031645 -0.330706 0.072120 0.045760 -0.121307 0.057778 0.142052 -0.121185 0.009380 0.109317 0.059432 0.174270 0.124576 -0.109287 0.228554 0.124858 -0.087936 0.085042 -0.226604 -0.110000 -0.114206 -0.052056 -0.021099 -0.227490 -0.014693 -0.100577 0.116457 -0.369846 0.059857 -0.078596 -0.182582 -0.001401 0.132342 -0.018498 -0.339366 -0.111534 -0.111279 0.089180 0.008068 0.061458 -0.122164 -0.075875 -0.159543 -0.169392 -0.010008 -0.108326 0.215096 0.172664 0.053465 -0.062058 -0.094439 -0.153127 0.023008 -0.050121 0.108480 -0.085877 0.036148 -0.066279 -0.107324 -0.026427 -0.021938 -0.002851 0.061819 0.004174 0.044129 0.208210 0.297227 0.004894 -0.056193 -0.103457 0.100418 0.048435 0.238569 0.007508 -0.056783 -0.038657 0.033896 -0.150768 0.156293 0.194783 0.054475 0.218827 0.220792 0.168851 0.023675 0.045303 0.068103 0.006366 -0.068237 0.038100 0.068588 -0.148211 -0.183204 -0.050053 0.163602 -0.051706 0.006925 0.098340 0.045645 0.238522 0.267067 0.123375 0.083765 0.038275 -0.057333 0.232110 -0.163650 -0.021100 -0.018520 -0.241144 0.222976 -0.015878 -0.114335 0.130309 0.102095 0.073350 -0.049547 0.053038 -0.335305 0.123832 0.078276 0.436586 -0.008846 0.085986 0.225139
23 0.091268 -0.045613 -0.132693 0.095277 -0.405736 -0.031115 -0.118228 0.061713 -0.072250 0.146955 -0.325526 0.186553 0.140844 0.055629 -0.095972 0.285923 -0.046054 0.169622 -0.253491 0.346630 -0.066805 0.117614 0.090795 -0.088990 -0.047006 -0.137030 -0.311744 0.234567 -0.099989 -0.201532 -0.202005 -0.009727 -0.094680 0.170664 -0.170169 0.119464 -0.100819 -0.095373 -0.163064 -0.135022 -0.137818 -0.308610 0.249022 0.117052 0.276440 0.096990 -0.236483 -0.000997 -0.184140 0.273382 -0.065843 -0.037261 0.172275 -0.117286 0.318677 -0.239906 -0.405198 0.048689 0.203370 -0.204606 0.207421 0.155951 0.143984 0.223793 -0.000685 0.487434 0.095637 0.306302 0.107812 0.239141 0.176923 -0.029358 0.005665 -0.077811 0.053851 -0.041736 0.002763 0.172149 -0.068135 0.237445 0.279199 0.136175 0.071436 -0.197072 -0.159079 0.216013 0.087072 0.026231 0.029862 -0.218523 0.259514 0.055473 -0.186991 0.055797 0.050448 -0.172316 0.059668 -0.054388 -0.162696 -0.117692 -0.025097 -0.032353 0.082635 0.080263 0.076118 -0.017750 -0.172223 -0.291860 0.291192 -0.250064 0.050226 -0.052180 -0.160456 -0.165289 -0.152414 0.025736 0.234803 0.152197 -0.266940 -0.186377 -0.044301 -0.312081 -0.100787 0.067359 0.224502 0.102095 -0.015906 0.145197
8 0.080616 -0.067787 -0.043227 0.007292 -0.275346 -0.026729 0.000937 -0.011295 -0.018167 0.101413 -0.161555 0.066303 0.082419 0.058521 0.037446 0.181358 -0.023727 0.166769 -0.077073 0.096196 0.019918 -0.016458 0.014789 -0.084795 -0.038103 -0.057058 -0.153578 0.104908 -0.079777 -0.002779 -0.215340 0.051073 -0.069969 0.037323 -0.070962 0.110178 -0.080493 -0.180040 -0.087889 -0.060134 0.018442 -0.118638 0.147280 -0.024775 0.082595 -0.004105 -0.171953 -0.036788 -0.124284 0.201602 0.011682 0.006804 0.076886 -0.072617 0.092414 -0.134789 -0.207511 0.037575 0.058056 -0.049896 0.040460 -0.011757 0.035242 0.088764 0.031682 0.220713 0.029143 0.131749 0.151580 0.185102 0.096067 -0.048041 -0.019968 0.028065 0.080668 0.041471 0.009687 0.036311 -0.056881 0.117075 0.051375 0.116468 0.100317 -0.067247 0.010319 0.181752 0.092750 -0.037611 0.046570 -0.017264 0.079859 -0.003594 -0.087431 0.033752 -0.008835 -0.150067 0.023926 0.048203 -0.087152 -0.058262 0.033337 -0.041106 0.073965 0.085717 0.132883 0.009705 -0.126408 -0.166760 0.226148 -0.186806 -0.003784 -0.046471 -0.141234 0.008966 -0.029041 -0.028091 0.155851 0.075491 -0.085392 -0.127486 -0.019516 -0.243170 0.020045 0.030661 0.259214 0.040376 0.009805 0.163935
5 0.042632 -0.255522 -0.063199 -0.195650 -0.377692 -0.045191 0.117981 -0.123579 -0.012943 -0.036030 -0.062261 -0.076577 0.159691 0.054411 0.276236 0.283683 0.296493 0.195466 -0.239733 -0.134664 0.204666 -0.283481 -0.028908 -0.272761 -0.062882 -0.055210 0.114383 0.060959 -0.235877 0.325985 -0.377450 0.073758 -0.096401 -0.081855 0.284819 0.290683 -0.222271 -0.570412 -0.074422 0.070406 0.408019 0.126812 0.195393 -0.210763 -0.038111 -0.190369 -0.335958 -0.013527 0.051750 0.375289 0.146302 0.225765 0.065386 -0.262439 -0.306551 0.051695 0.083349 0.165705 -0.228184 0.085614 -0.185634 -0.346959 -0.137072 0.109809 -0.026759 -0.099044 -0.087781 -0.046805 0.319222 0.166593 0.117355 -0.014778 -0.229947 0.229740 0.259198 -0.074833 -0.077922 -0.213961 -0.208487 0.017372 -0.128952 -0.115521 0.224036 -0.042075 0.121800 0.302395 -0.025223 -0.282838 0.124388 0.180811 -0.100866 -0.011047 0.101375 0.074031 0.061175 -0.021210 -0.229276 0.104583 0.108574 -0.256240 0.269438 0.001410 0.103823 0.261072 0.256782 0.182488 -0.149226 -0.072839 0.200794 -0.210785 -0.465609 -0.006723 -0.254542 0.206301 0.245447 -0.189501 0.268900 0.102562 0.124079 -0.172158 -0.078708 -0.406228 0.273991 0.078891 0.610558 0.049814 0.203954 0.211568
6 0.049644 -0.268442 -0.049654 -0.186996 -0.376033 -0.040357 0.124022 -0.131700 -0.014898 -0.019942 -0.058576 -0.080831 0.158360 0.059220 0.271417 0.277296 0.272393 0.201534 -0.222367 -0.148796 0.207181 -0.294680 -0.038153 -0.270644 -0.060556 -0.045989 0.097151 0.047894 -0.241910 0.321837 -0.387823 0.083560 -0.101903 -0.097640 0.279216 0.283710 -0.213110 -0.567924 -0.079993 0.064941 0.399331 0.132867 0.181808 -0.208799 -0.052637 -0.201081 -0.338543 -0.006301 0.038933 0.376445 0.151484 0.229708 0.052605 -0.254417 -0.305417 0.057710 0.086365 0.167754 -0.234642 0.089795 -0.191249 -0.346904 -0.138916 0.109968 -0.024961 -0.105450 -0.089558 -0.045861 0.316136 0.178829 0.116234 -0.018337 -0.226363 0.227615 0.260160 -0.054870 -0.073927 -0.214095 -0.193527 0.013337 -0.144121 -0.105910 0.234988 -0.033418 0.137045 0.297426 -0.011544 -0.271307 0.130897 0.177980 -0.102591 -0.024108 0.106666 0.074527 0.039596 -0.036408 -0.223987 0.117642 0.104621 -0.246659 0.262561 0.004450 0.114566 0.282532 0.250871 0.176082 -0.134984 -0.073172 0.213669 -0.215864 -0.452834 -0.019589 -0.269998 0.219358 0.232400 -0.186547 0.265446 0.106151 0.126695 -0.165619 -0.071029 -0.418417 0.277827 0.077419 0.620111 0.037697 0.200182 0.226150
13 0.107514 -0.162617 0.004687 -0.013165 -0.300624 0.030090 0.033621 -0.080258 0.019689 0.113305 -0.135622 0.027473 0.102879 0.062744 0.120574 0.135487 -0.074414 0.192812 0.033147 -0.019110 0.064139 -0.147759 -0.056738 -0.098539 -0.050660 -0.033878 -0.189204 0.031712 -0.086405 0.072027 -0.302814 0.054319 -0.073248 -0.088367 -0.013567 0.127245 -0.049472 -0.277048 -0.097907 -0.087590 0.059511 -0.035184 0.091859 -0.088342 -0.013732 -0.093087 -0.156520 -0.023391 -0.109272 0.199140 0.104899 0.031480 -0.012740 -0.087809 -0.057902 -0.035460 -0.100955 0.080886 -0.039810 0.004522 -0.028470 -0.080765 0.001414 0.024782 0.005701 0.113327 0.006242 0.068942 0.180240 0.246027 0.037157 -0.056395 -0.070882 0.063154 0.058489 0.153093 0.001384 -0.023114 -0.049258 0.069953 -0.073363 0.137210 0.149465 0.008625 0.139006 0.199283 0.136814 -0.005777 0.042767 0.037070 0.037336 -0.041183 0.001414 0.046012 -0.092543 -0.166609 -0.013676 0.115407 -0.059155 -0.017575 0.065447 0.009193 0.170759 0.192022 0.117612 0.056783 -0.025676 -0.101327 0.223615 -0.157389 -0.016863 -0.026991 -0.195668 0.133213 -0.027745 -0.075981 0.140710 0.088395 0.012076 -0.083076 0.015116 -0.295486 0.079968 0.060943 0.360659 0.008350 0.053332 0.196253
29 0.081856 -0.005069 -0.111811 0.096283 -0.381480 -0.053909 -0.091538 0.064455 -0.078541 0.147296 -0.323169 0.181025 0.139089 0.065191 -0.088769 0.292681 -0.039052 0.172974 -0.234575 0.345051 -0.061445 0.152932 0.095833 -0.081080 -0.055856 -0.125092 -0.297887 0.253118 -0.082959 -0.180752 -0.209489 0.009540 -0.088925 0.196627 -0.196270 0.108476 -0.121212 -0.083941 -0.149668 -0.128209 -0.139865 -0.305937 0.247127 0.098019 0.267308 0.114672 -0.234226 -0.030300 -0.201914 0.260109 -0.095493 -0.060662 0.173735 -0.088654 0.351003 -0.290617 -0.432833 0.021721 0.234054 -0.185790 0.192698 0.146603 0.135984 0.215443 0.034634 0.499063 0.087437 0.296220 0.116307 0.231096 0.172004 -0.056032 0.024424 -0.080112 0.064920 -0.049060 0.024107 0.176940 -0.063626 0.260628 0.266425 0.169175 0.082725 -0.186496 -0.161720 0.212086 0.092497 -0.007177 0.019070 -0.184181 0.236399 0.045329 -0.209111 0.027816 0.054245 -0.194978 0.098656 -0.038413 -0.176379 -0.095834 -0.043902 -0.064272 0.051335 0.028615 0.107912 -0.039657 -0.216925 -0.307628 0.313118 -0.272452 0.088758 -0.055570 -0.148079 -0.168880 -0.148342 0.042862 0.243628 0.144439 -0.274003 -0.211882 -0.054544 -0.303485 -0.105131 0.045949 0.204904 0.102931 -0.056620 0.171034
27 0.091434 -0.078329 -0.116253 0.080867 -0.374943 -0.007047 -0.130981 0.051519 -0.057216 0.118456 -0.279901 0.158213 0.126198 0.048396 -0.089365 0.228671 -0.055629 0.147395 -0.223292 0.292222 -0.040481 0.050260 0.062380 -0.077810 -0.039063 -0.139077 -0.293188 0.174297 -0.100009 -0.177703 -0.169567 -0.026597 -0.089151 0.113807 -0.120063 0.120079 -0.078109 -0.094862 -0.149989 -0.134235 -0.107326 -0.256962 0.202430 0.101691 0.239861 0.057489 -0.204656 0.023053 -0.137785 0.239814 -0.025871 -0.005487 0.124183 -0.134525 0.235253 -0.151429 -0.299927 0.069648 0.140353 -0.193985 0.194467 0.141919 0.126917 0.206249 -0.037335 0.398636 0.073743 0.271414 0.093427 0.226088 0.155403 0.006683 -0.026604 -0.067482 0.036609 -0.017595 -0.005688 0.150167 -0.052801 0.198827 0.237956 0.089090 0.059640 -0.160460 -0.115953 0.191465 0.083915 0.040921 0.028682 -0.213190 0.234750 0.057352 -0.122859 0.055343 0.038005 -0.121564 0.028913 -0.053558 -0.127067 -0.117079 -0.006511 0.023056 0.102086 0.126405 0.026021 0.016876 -0.089505 -0.222697 0.231888 -0.198185 0.008413 -0.036110 -0.160334 -0.127010 -0.139469 0.006461 0.193879 0.154539 -0.217385 -0.145326 -0.031873 -0.286880 -0.071489 0.095659 0.214372 0.082373 0.029194 0.102905
30 0.078838 -0.057205 -0.042267 0.005836 -0.271462 -0.032395 0.008281 -0.014126 -0.025546 0.101765 -0.171794 0.060829 0.089018 0.053463 0.040005 0.183523 -0.031236 0.171437 -0.085385 0.093867 0.014419 -0.004685 0.018614 -0.073836 -0.040972 -0.051692 -0.148633 0.115282 -0.075915 0.000999 -0.215640 0.059178 -0.073524 0.046683 -0.068718 0.109129 -0.094124 -0.178097 -0.084345 -0.059153 0.014089 -0.119591 0.155660 -0.017660 0.079563 -0.002385 -0.171478 -0.039843 -0.129641 0.203307 0.006830 0.004932 0.080279 -0.071137 0.102839 -0.137709 -0.215085 0.030300 0.062719 -0.052444 0.034352 -0.009651 0.044527 0.083253 0.033603 0.228812 0.022610 0.121558 0.154748 0.181478 0.095305 -0.052012 -0.010652 0.022680 0.081969 0.038997 0.007542 0.031429 -0.062879 0.124599 0.057749 0.122841 0.105334 -0.070623 0.013212 0.174121 0.086696 -0.043069 0.045946 -0.020823 0.081692 -0.004085 -0.093211 0.030235 -0.007142 -0.155749 0.025037 0.046087 -0.094709 -0.046664 0.020367 -0.040687 0.073769 0.082407 0.138738 -0.005516 -0.133097 -0.179551 0.235062 -0.186734 -0.004713 -0.049737 -0.141192 0.000258 -0.033919 -0.021287 0.165827 0.076942 -0.091272 -0.135682 -0.017295 -0.243491 0.016363 0.025315 0.254616 0.042831 0.008163 0.163438
7 0.117497 -0.204572 0.013308 -0.031714 -0.317848 0.055203 0.038250 -0.102347 0.034524 0.114985 -0.115177 0.008202 0.102727 0.055819 0.154844 0.123057 -0.076125 0.205034 0.059525 -0.058187 0.077277 -0.205920 -0.084642 -0.109825 -0.045883 -0.028309 -0.185074 -0.002732 -0.102644 0.099186 -0.333378 0.053330 -0.075123 -0.141831 0.016963 0.136195 -0.033725 -0.320757 -0.108351 -0.091335 0.086946 0.003887 0.083620 -0.107244 -0.042611 -0.136521 -0.163685 -0.017261 -0.100068 0.210246 0.141251 0.054263 -0.029815 -0.111313 -0.124973 0.012181 -0.046009 0.101923 -0.083401 0.025168 -0.056661 -0.114057 -0.020165 0.008541 -0.007778 0.064705 0.001942 0.045965 0.197031 0.264232 0.023564 -0.050962 -0.101883 0.086398 0.059181 0.178560 -0.004300 -0.048026 -0.055231 0.036198 -0.117533 0.123694 0.168632 0.024412 0.182344 0.212530 0.144747 -0.004313 0.045725 0.051651 0.022082 -0.052503 0.032740 0.062675 -0.115568 -0.162286 -0.042856 0.137419 -0.043198 -0.021013 0.095318 0.038078 0.199306 0.241159 0.120535 0.077339 0.008433 -0.067497 0.219304 -0.153911 -0.050387 -0.020401 -0.219990 0.173081 -0.009239 -0.110886 0.135738 0.094332 0.051561 -0.067256 0.027795 -0.314125 0.118024 0.072946 0.408648 -0.008298 0.082870 0.207659
4 0.046717 -0.247863 -0.049665 -0.172148 -0.355875 -0.033624 0.106882 -0.123418 -0.013404 -0.011695 -0.070744 -0.060186 0.159059 0.065078 0.259814 0.269685 0.248175 0.194411 -0.193625 -0.133427 0.186419 -0.266552 -0.027603 -0.250943 -0.059682 -0.043911 0.078819 0.047190 -0.217567 0.297333 -0.369864 0.077939 -0.104124 -0.077259 0.238386 0.266191 -0.199277 -0.528980 -0.074225 0.052399 0.364753 0.106927 0.183008 -0.200077 -0.043779 -0.182725 -0.320293 -0.004452 0.037181 0.355171 0.140122 0.205729 0.043754 -0.239440 -0.273600 0.038435 0.054201 0.152527 -0.203366 0.075769 -0.164086 -0.311387 -0.123854 0.091019 -0.025580 -0.083472 -0.069560 -0.037628 0.299194 0.181605 0.096928 -0.026279 -0.201424 0.206311 0.231555 -0.046882 -0.069445 -0.197720 -0.186569 0.020256 -0.127917 -0.074997 0.219089 -0.038669 0.130445 0.285291 -0.003762 -0.245708 0.117023 0.163965 -0.085298 -0.019645 0.096119 0.060662 0.032982 -0.047312 -0.200559 0.099289 0.089320 -0.220613 0.241304 -0.005473 0.118864 0.252826 0.239898 0.169071 -0.134474 -0.072338 0.200536 -0.204903 -0.407623 -0.011498 -0.244277 0.210137 0.209253 -0.173910 0.245650 0.103150 0.107039 -0.160921 -0.055240 -0.385704 0.244262 0.067158 0.569804 0.044251 0.185654 0.205978
10 0.050761 -0.256794 -0.044032 -0.175468 -0.359193 -0.033511 0.114166 -0.126121 -0.014291 -0.012604 -0.058328 -0.064787 0.151369 0.061328 0.259444 0.263330 0.245238 0.187578 -0.194562 -0.137135 0.187519 -0.275002 -0.033649 -0.241826 -0.056067 -0.040147 0.079476 0.047726 -0.228564 0.300176 -0.372733 0.071814 -0.107082 -0.090013 0.247203 0.259378 -0.197858 -0.532458 -0.075303 0.051647 0.363152 0.121071 0.170569 -0.202802 -0.052406 -0.191960 -0.319361 -0.004283 0.039234 0.352695 0.148260 0.212138 0.040041 -0.241540 -0.282334 0.057455 0.075721 0.159842 -0.218060 0.077612 -0.176137 -0.310833 -0.120321 0.100009 -0.029065 -0.096857 -0.076581 -0.039797 0.300043 0.183576 0.096748 -0.023493 -0.210454 0.209832 0.237875 -0.044344 -0.065591 -0.203123 -0.180405 0.012215 -0.134866 -0.088574 0.215179 -0.032302 0.133327 0.282857 -0.007477 -0.248076 0.122684 0.161609 -0.091964 -0.026809 0.101351 0.059847 0.035393 -0.046113 -0.201454 0.103220 0.095885 -0.223365 0.235209 0.007673 0.125018 0.263819 0.227884 0.168574 -0.125686 -0.067383 0.202381 -0.199022 -0.411691 -0.018977 -0.247566 0.213219 0.205628 -0.179009 0.243084 0.106654 0.119293 -0.156586 -0.058249 -0.391362 0.254140 0.072972 0.575225 0.028384 0.194793 0.206937
24 0.094122 -0.122406 -0.152305 0.069620 -0.397543 0.016015 -0.180527 0.051804 -0.058973 0.090673 -0.292743 0.168360 0.139322 0.033806 -0.110112 0.242634 -0.033646 0.137446 -0.288161 0.315930 -0.053288 0.034083 0.069549 -0.094255 -0.027421 -0.153054 -0.299422 0.177051 -0.130842 -0.217203 -0.150417 -0.060367 -0.097285 0.120710 -0.086344 0.134706 -0.074132 -0.097339 -0.158327 -0.141144 -0.109060 -0.267656 0.210885 0.143876 0.273861 0.043291 -0.231016 0.055936 -0.112376 0.262169 -0.013467 0.029396 0.142544 -0.187230 0.208829 -0.099301 -0.280354 0.106043 0.114978 -0.238989 0.227166 0.165965 0.139363 0.242226 -0.085359 0.398786 0.083201 0.288370 0.085064 0.228446 0.177923 0.047083 -0.050304 -0.088316 0.030309 -0.060588 -0.031659 0.152384 -0.073332 0.180320 0.293291 0.034427 0.046371 -0.204906 -0.154580 0.194040 0.054242 0.062267 0.038999 -0.275400 0.268721 0.077281 -0.098742 0.075038 0.062970 -0.087080 -0.019863 -0.091399 -0.112673 -0.161243 0.015270 0.063655 0.135187 0.165823 -0.024556 0.035098 -0.044660 -0.221286 0.190373 -0.184310 -0.057504 -0.029892 -0.172249 -0.158569 -0.146806 -0.013083 0.200794 0.171764 -0.222969 -0.143721 -0.023090 -0.288541 -0.076511 0.129257 0.226432 0.088746 0.087068 0.053074
25 0.073504 -0.114335 -0.158534 0.069600 -0.392779 0.003811 -0.173465 0.061742 -0.065729 0.077459 -0.292521 0.167233 0.146274 0.035325 -0.107585 0.259752 -0.006925 0.119420 -0.310850 0.327423 -0.046430 0.041977 0.074399 -0.100383 -0.028137 -0.163699 -0.276276 0.188122 -0.142114 -0.209376 -0.137526 -0.059635 -0.091778 0.130168 -0.066622 0.134622 -0.085729 -0.095912 -0.153415 -0.130054 -0.097695 -0.255508 0.230119 0.139295 0.278719 0.056710 -0.239315 0.058703 -0.099027 0.267031 -0.024789 0.029377 0.149205 -0.187447 0.220152 -0.106723 -0.275355 0.106717 0.119639 -0.234879 0.222344 0.161977 0.137494 0.253646 -0.084487 0.393451 0.083366 0.284772 0.086199 0.222103 0.184248 0.042117 -0.053668 -0.085735 0.042334 -0.082982 -0.025926 0.139195 -0.076725 0.191623 0.296910 0.021011 0.046206 -0.209456 -0.169191 0.189961 0.051000 0.042424 0.041198 -0.266448 0.254747 0.080031 -0.095548 0.067177 0.079870 -0.069665 -0.029977 -0.100815 -0.106007 -0.174739 0.017949 0.061927 0.115684 0.153475 -0.016122 0.045854 -0.070490 -0.217438 0.192616 -0.181975 -0.075419 -0.024525 -0.172577 -0.161626 -0.125917 -0.008179 0.208814 0.174714 -0.231550 -0.154624 -0.037935 -0.292687 -0.081444 0.127626 0.224147 0.098704 0.082643 0.052613
19 0.088029 -0.127669 -0.018214 -0.025107 -0.274956 0.005646 0.032153 -0.054497 -0.003164 0.086314 -0.126290 0.032248 0.093744 0.054196 0.092892 0.156295 -0.015655 0.163350 -0.026160 0.010886 0.059477 -0.100176 -0.030097 -0.100285 -0.045782 -0.034693 -0.133432 0.055247 -0.094985 0.063804 -0.255055 0.053086 -0.073647 -0.042582 -0.000940 0.129216 -0.072194 -0.252045 -0.087871 -0.054487 0.069986 -0.044619 0.112953 -0.065300 0.018704 -0.065038 -0.165617 -0.017917 -0.084706 0.207070 0.071108 0.043779 0.024360 -0.089582 -0.029797 -0.055675 -0.113661 0.062074 -0.024721 -0.014307 -0.021510 -0.072199 0.006562 0.046470 0.009006 0.122877 -0.000884 0.074307 0.173048 0.199347 0.065962 -0.045127 -0.060623 0.061307 0.077783 0.085487 0.001150 -0.018063 -0.067204 0.078143 -0.028921 0.096999 0.134825 -0.017528 0.086325 0.179577 0.099348 -0.041881 0.048901 0.029400 0.035295 -0.022024 -0.021589 0.041670 -0.044430 -0.137491 -0.030225 0.078879 -0.050851 -0.055280 0.070834 -0.004678 0.124969 0.147465 0.123650 0.047082 -0.060720 -0.109412 0.200497 -0.162652 -0.052200 -0.026829 -0.173144 0.093018 -0.002080 -0.064141 0.148172 0.085396 -0.005867 -0.102256 -0.000221 -0.270465 0.069533 0.055456 0.327336 0.019311 0.055874 0.168879
28 0.111532 -0.096087 -0.069808 0.053401 -0.332562 0.011475 -0.062848 0.005038 -0.022504 0.126894 -0.219659 0.110814 0.097544 0.051591 -0.023323 0.183162 -0.085400 0.178943 -0.109952 0.171364 -0.010025 -0.002376 0.014648 -0.070019 -0.031486 -0.088060 -0.255742 0.111060 -0.078169 -0.094840 -0.213539 0.021528 -0.088141 0.040787 -0.113973 0.115670 -0.056902 -0.138570 -0.124541 -0.123687 -0.059420 -0.181500 0.149243 0.029878 0.148047 0.005808 -0.186703 0.001460 -0.147434 0.219901 0.018633 -0.006750 0.079780 -0.100355 0.133205 -0.121248 -0.239768 0.055628 0.090710 -0.128030 0.116416 0.070608 0.090352 0.130516 -0.011146 0.304519 0.048644 0.201017 0.131410 0.225223 0.112256 -0.014931 -0.026046 -0.023913 0.033377 0.054003 0.002638 0.098440 -0.038933 0.150051 0.117350 0.124262 0.090528 -0.089476 -0.012291 0.180861 0.111942 0.038755 0.023518 -0.119323 0.165782 0.017446 -0.093228 0.050859 -0.017643 -0.150887 0.031749 0.016307 -0.114025 -0.068277 0.003440 0.015177 0.122968 0.130388 0.060930 0.006465 -0.067768 -0.173734 0.220458 -0.186389 0.020009 -0.038504 -0.163287 -0.041098 -0.105468 -0.017122 0.166089 0.116549 -0.137766 -0.115788 -0.011151 -0.264719 -0.020790 0.073946 0.253604 0.045241 0.031975 0.139451
16 0.052353 -0.295326 -0.055692 -0.220238 -0.404042 -0.048688 0.144706 -0.134080 -0.009943 -0.042761 -0.057744 -0.096684 0.168532 0.063303 0.305075 0.299634 0.321017 0.217431 -0.254355 -0.178097 0.227931 -0.323835 -0.030821 -0.296811 -0.069435 -0.044960 0.135188 0.058893 -0.269846 0.367717 -0.408070 0.089324 -0.108562 -0.091588 0.320584 0.319069 -0.237872 -0.622908 -0.073123 0.087507 0.452706 0.153232 0.202592 -0.233964 -0.053095 -0.223923 -0.366294 -0.012462 0.060072 0.410039 0.174088 0.255097 0.058591 -0.287450 -0.354180 0.068323 0.102833 0.178474 -0.258052 0.106431 -0.212213 -0.389512 -0.160863 0.122508 -0.031118 -0.136522 -0.100665 -0.067349 0.348394 0.172294 0.122897 -0.021631 -0.256608 0.257820 0.287156 -0.080514 -0.083059 -0.248015 -0.223442 0.007334 -0.159307 -0.134235 0.255719 -0.029192 0.151846 0.325070 -0.028433 -0.306536 0.142753 0.202336 -0.129324 -0.014163 0.129497 0.070249 0.061723 -0.021061 -0.257952 0.116802 0.123002 -0.268198 0.296933 0.006263 0.113218 0.301487 0.277644 0.197837 -0.143549 -0.066292 0.222198 -0.219044 -0.517100 -0.013303 -0.287064 0.245408 0.274810 -0.200852 0.290114 0.107139 0.141204 -0.190132 -0.079836 -0.445507 0.310209 0.076442 0.669348 0.042953 0.225750 0.237698
26 0.081002 -0.005232 -0.097807 0.081007 -0.350236 -0.049512 -0.056215 0.051307 -0.069703 0.144116 -0.286262 0.154175 0.123678 0.063592 -0.058539 0.268480 -0.027283 0.171111 -0.199056 0.288314 -0.044439 0.125346 0.082908 -0.082226 -0.056387 -0.111205 -0.256075 0.220335 -0.072436 -0.133253 -0.212980 0.025729 -0.089544 0.168837 -0.177721 0.112583 -0.117855 -0.101948 -0.138157 -0.104971 -0.097638 -0.265785 0.221822 0.061573 0.228105 0.093883 -0.222849 -0.037957 -0.190864 0.248928 -0.075264 -0.044571 0.149688 -0.070711 0.297604 -0.270057 -0.390779 0.015409 0.203673 -0.151495 0.157304 0.097314 0.112175 0.184969 0.049246 0.435163 0.072408 0.255462 0.116847 0.213414 0.150917 -0.064813 0.017325 -0.046703 0.065686 -0.034014 0.019750 0.146336 -0.056571 0.233150 0.207584 0.151865 0.090113 -0.148373 -0.125663 0.203768 0.087412 -0.021324 0.018589 -0.131633 0.198465 0.030061 -0.195120 0.034557 0.040611 -0.186457 0.088334 -0.017493 -0.159771 -0.081823 -0.032216 -0.078511 0.037196 0.025580 0.125552 -0.038291 -0.216096 -0.276615 0.293637 -0.258189 0.068799 -0.050600 -0.142835 -0.125286 -0.111338 0.033411 0.224653 0.124882 -0.228524 -0.184408 -0.055261 -0.287083 -0.075688 0.034089 0.217569 0.088425 -0.055194 0.182005
20 0.091558 -0.024636 -0.093255 0.069668 -0.348537 -0.048181 -0.051364 0.046309 -0.055685 0.138921 -0.258344 0.142421 0.103137 0.066387 -0.056909 0.244316 -0.057635 0.184132 -0.172194 0.250985 -0.044780 0.101242 0.067627 -0.067033 -0.037637 -0.101244 -0.246025 0.190901 -0.077703 -0.122273 -0.200364 0.033854 -0.084279 0.136524 -0.169320 0.105866 -0.105243 -0.107732 -0.120228 -0.099068 -0.088232 -0.251158 0.217851 0.059212 0.195179 0.072084 -0.211878 -0.044396 -0.191096 0.238750 -0.062059 -0.044678 0.155012 -0.073392 0.271950 -0.238107 -0.373751 0.015355 0.177909 -0.136325 0.142700 0.097739 0.110326 0.159561 0.041021 0.414213 0.067526 0.241467 0.137985 0.208909 0.149211 -0.050217 0.019914 -0.033606 0.074023 -0.004471 0.018657 0.130209 -0.059112 0.202868 0.188854 0.162154 0.085185 -0.136675 -0.087384 0.199484 0.098911 -0.010548 0.033731 -0.119103 0.186813 0.034827 -0.182144 0.038315 0.034072 -0.191695 0.082918 -0.005751 -0.149723 -0.072887 -0.021347 -0.062266 0.043516 0.039404 0.125760 -0.033933 -0.194437 -0.256585 0.288028 -0.241635 0.069975 -0.063751 -0.139693 -0.114238 -0.101594 0.015796 0.205474 0.108176 -0.209898 -0.180347 -0.043574 -0.261737 -0.062053 0.027002 0.218461 0.071175 -0.031497 0.164879
15 0.081882 -0.023534 -0.095036 0.058334 -0.333142 -0.050613 -0.050114 0.047454 -0.057315 0.130047 -0.249849 0.133001 0.107215 0.059376 -0.055468 0.242664 -0.030085 0.176867 -0.191541 0.242768 -0.037628 0.094494 0.066265 -0.073991 -0.034919 -0.097662 -0.219174 0.190737 -0.076637 -0.111283 -0.187140 0.035952 -0.081605 0.147084 -0.147173 0.110807 -0.106947 -0.108371 -0.118230 -0.086461 -0.070493 -0.239674 0.213185 0.055829 0.197028 0.069698 -0.214533 -0.037578 -0.175364 0.237956 -0.060262 -0.028150 0.154075 -0.074734 0.255305 -0.230978 -0.351949 0.018947 0.167660 -0.137698 0.136701 0.078307 0.097436 0.164462 0.039489 0.391179 0.059138 0.222654 0.135198 0.197489 0.151472 -0.045387 0.013090 -0.026608 0.080194 -0.026945 0.008748 0.117564 -0.065486 0.195599 0.186862 0.137617 0.084553 -0.143222 -0.095664 0.192493 0.089290 -0.025987 0.030488 -0.118564 0.171767 0.035333 -0.176399 0.034094 0.041230 -0.172386 0.064852 -0.011886 -0.139575 -0.086506 -0.010961 -0.065086 0.037199 0.039179 0.123597 -0.031955 -0.193958 -0.252899 0.273269 -0.231749 0.037710 -0.055020 -0.135020 -0.114628 -0.091089 0.013201 0.200421 0.110698 -0.196686 -0.172750 -0.046398 -0.256905 -0.050688 0.028996 0.217120 0.076453 -0.028271 0.158524
21 0.097008 -0.202831 0.006279 -0.063137 -0.307051 0.032417 0.059740 -0.107426 0.027546 0.088408 -0.104966 -0.001821 0.112885 0.060573 0.175745 0.157886 -0.005492 0.194918 0.017960 -0.081395 0.101244 -0.214171 -0.070423 -0.138696 -0.049597 -0.024523 -0.123890 0.008231 -0.127012 0.145764 -0.332350 0.065445 -0.082137 -0.126493 0.061930 0.161322 -0.071702 -0.362910 -0.092453 -0.055657 0.149627 0.022337 0.101883 -0.125180 -0.055231 -0.141820 -0.191302 -0.013798 -0.065185 0.232047 0.142942 0.087444 -0.017671 -0.125504 -0.156142 0.013189 -0.032299 0.101907 -0.107157 0.037895 -0.085582 -0.143581 -0.038631 0.016692 -0.006244 0.036224 -0.014892 0.026388 0.217080 0.241141 0.043686 -0.043819 -0.114708 0.109638 0.101303 0.134359 -0.009420 -0.085060 -0.084191 0.032190 -0.115403 0.083103 0.180935 0.017880 0.170278 0.218032 0.110687 -0.060175 0.072222 0.083389 -0.007106 -0.045294 0.047100 0.054347 -0.082409 -0.138639 -0.076601 0.122188 -0.015801 -0.058814 0.125831 0.024887 0.184535 0.231356 0.145943 0.095252 -0.022335 -0.072792 0.209053 -0.162695 -0.119123 -0.023048 -0.218219 0.188507 0.041106 -0.119663 0.153394 0.093087 0.067571 -0.086097 0.015866 -0.323714 0.140329 0.068210 0.436322 0.001580 0.104468 0.200966
9 0.099770 -0.080711 -0.037757 0.035539 -0.302396 -0.001149 -0.019113 -0.007718 -0.016322 0.121842 -0.184640 0.080680 0.094091 0.056474 0.014680 0.169259 -0.069759 0.177586 -0.067692 0.115834 0.002041 -0.014141 0.008456 -0.078311 -0.045045 -0.064693 -0.215884 0.099584 -0.065276 -0.031355 -0.227264 0.040436 -0.069973 0.026513 -0.101252 0.110019 -0.066902 -0.163723 -0.110701 -0.094759 -0.025700 -0.144605 0.132071 -0.007059 0.104144 -0.004818 -0.170428 -0.020577 -0.135683 0.205732 0.016109 -0.009348 0.062852 -0.077797 0.104033 -0.130575 -0.212501 0.048978 0.069359 -0.071438 0.067945 0.024218 0.054213 0.090497 0.015506 0.257098 0.036940 0.157653 0.141455 0.209633 0.086913 -0.038336 -0.025696 0.009337 0.047032 0.071657 0.006768 0.064859 -0.035494 0.129439 0.062530 0.130310 0.100517 -0.060188 0.016818 0.181400 0.108730 0.005322 0.029479 -0.056909 0.116679 0.001793 -0.090853 0.042581 -0.028912 -0.157939 0.038301 0.041483 -0.102705 -0.048398 0.020312 -0.020586 0.105039 0.113902 0.106280 0.010380 -0.093170 -0.164470 0.230277 -0.183627 0.028861 -0.035892 -0.150427 -0.004691 -0.069747 -0.016285 0.155723 0.096806 -0.098901 -0.118909 -0.012598 -0.257372 0.005949 0.049972 0.254827 0.038883 0.010483 0.167089
17 0.101829 -0.209151 0.003341 -0.061540 -0.314711 0.039162 0.053164 -0.105166 0.024497 0.088756 -0.111510 -0.001454 0.109974 0.056227 0.169494 0.149845 -0.024467 0.199526 0.027463 -0.079495 0.097538 -0.213300 -0.071447 -0.131797 -0.049561 -0.026223 -0.140705 0.010434 -0.119598 0.134093 -0.330057 0.063967 -0.078229 -0.132861 0.059438 0.158702 -0.065398 -0.355657 -0.091667 -0.055369 0.133314 0.022284 0.100405 -0.123503 -0.050465 -0.139264 -0.185086 -0.012482 -0.069886 0.230626 0.139571 0.076710 -0.022613 -0.124666 -0.155174 0.013495 -0.036767 0.102723 -0.098706 0.031247 -0.080811 -0.142217 -0.032935 0.017996 -0.006307 0.042354 -0.015848 0.030290 0.214002 0.241792 0.037031 -0.047357 -0.106752 0.109550 0.087282 0.148101 -0.011702 -0.077796 -0.077503 0.034279 -0.119638 0.089792 0.174718 0.015387 0.172441 0.215300 0.118154 -0.046547 0.068544 0.080455 -0.001326 -0.043079 0.045159 0.059719 -0.088353 -0.141321 -0.078437 0.125545 -0.018742 -0.047827 0.116233 0.027779 0.185855 0.232746 0.135163 0.093214 -0.016534 -0.075176 0.211316 -0.156398 -0.111306 -0.018338 -0.220288 0.184642 0.027772 -0.120060 0.149491 0.091204 0.065591 -0.078919 0.018339 -0.325586 0.134431 0.074865 0.435297 -0.001311 0.103465 0.203835
22 0.095547 -0.020604 -0.093977 0.069311 -0.344419 -0.049260 -0.052935 0.049540 -0.059816 0.140520 -0.265548 0.134948 0.102074 0.062068 -0.060118 0.245028 -0.047464 0.179559 -0.177826 0.250454 -0.043818 0.105844 0.067411 -0.062943 -0.035587 -0.099145 -0.240521 0.198488 -0.076664 -0.125781 -0.198555 0.036371 -0.080487 0.141507 -0.167446 0.103636 -0.107943 -0.104230 -0.125679 -0.098834 -0.084846 -0.249680 0.214515 0.055805 0.199457 0.071953 -0.211332 -0.044435 -0.189030 0.234427 -0.064613 -0.043121 0.154452 -0.072224 0.275519 -0.239408 -0.372699 0.015010 0.175389 -0.143322 0.142857 0.096542 0.111600 0.160160 0.042260 0.413319 0.068051 0.235840 0.135840 0.205667 0.150453 -0.051698 0.023532 -0.034363 0.069249 -0.006949 0.019367 0.127551 -0.059257 0.202656 0.191160 0.158283 0.081772 -0.143756 -0.099357 0.195437 0.097497 -0.011282 0.032349 -0.126545 0.188629 0.035930 -0.187350 0.034759 0.038485 -0.182472 0.076605 -0.007223 -0.151864 -0.073815 -0.025136 -0.063673 0.041998 0.035415 0.124977 -0.034735 -0.194364 -0.259366 0.283942 -0.239736 0.062734 -0.064164 -0.137538 -0.116840 -0.104518 0.017649 0.207064 0.109885 -0.207350 -0.175735 -0.040019 -0.264255 -0.062091 0.031852 0.214189 0.074276 -0.031555 0.160848
14 0.090710 -0.010618 -0.086997 0.057081 -0.330438 -0.052618 -0.038113 0.043873 -0.062005 0.131882 -0.251683 0.132248 0.103793 0.064398 -0.051795 0.242549 -0.035374 0.176695 -0.172867 0.234298 -0.028976 0.099639 0.066831 -0.071993 -0.042864 -0.095523 -0.219007 0.194409 -0.074507 -0.104529 -0.195756 0.046917 -0.078189 0.144858 -0.161733 0.113207 -0.112251 -0.111201 -0.114308 -0.093056 -0.068022 -0.238508 0.212651 0.046989 0.195779 0.069426 -0.209116 -0.047348 -0.176561 0.238532 -0.061600 -0.033993 0.150062 -0.070858 0.253830 -0.236177 -0.353070 0.012973 0.169507 -0.129871 0.131315 0.069789 0.098222 0.154914 0.041562 0.389661 0.053279 0.228289 0.139789 0.200491 0.150908 -0.057628 0.023791 -0.030518 0.075571 -0.018790 0.015007 0.118483 -0.059746 0.205491 0.181553 0.154639 0.084060 -0.135063 -0.087142 0.194197 0.089401 -0.028649 0.031967 -0.103425 0.170927 0.029667 -0.179695 0.034067 0.034884 -0.179268 0.073843 -0.004882 -0.145868 -0.075890 -0.018256 -0.072702 0.036874 0.031693 0.134018 -0.033794 -0.200293 -0.252521 0.281488 -0.235292 0.055371 -0.062984 -0.138265 -0.105769 -0.094676 0.020220 0.206496 0.101385 -0.193384 -0.180428 -0.050417 -0.256419 -0.050738 0.021380 0.214634 0.072675 -0.035239 0.165671
18 0.091349 -0.022060 -0.085963 0.068678 -0.337349 -0.047594 -0.052109 0.044468 -0.055721 0.133955 -0.260649 0.134917 0.100660 0.065445 -0.056158 0.242188 -0.052002 0.178397 -0.173173 0.241470 -0.035867 0.095459 0.064214 -0.071158 -0.038793 -0.093961 -0.237078 0.190221 -0.073518 -0.112980 -0.200985 0.040147 -0.083953 0.144833 -0.166617 0.110401 -0.105203 -0.109583 -0.116276 -0.101405 -0.081541 -0.246599 0.211845 0.054296 0.196205 0.076111 -0.212030 -0.041446 -0.185349 0.238802 -0.060053 -0.042618 0.147978 -0.073354 0.260503 -0.240717 -0.363707 0.016995 0.171744 -0.135032 0.143153 0.089766 0.101999 0.159287 0.042123 0.402750 0.063703 0.230095 0.140505 0.206700 0.144957 -0.048930 0.021159 -0.035689 0.070571 -0.005946 0.014459 0.122272 -0.059384 0.201660 0.187290 0.154507 0.083350 -0.139864 -0.093222 0.200417 0.097467 -0.013556 0.031644 -0.117898 0.181882 0.034416 -0.179066 0.031989 0.037718 -0.179040 0.079413 -0.007260 -0.146030 -0.074881 -0.023238 -0.066927 0.049358 0.035961 0.128620 -0.037166 -0.195605 -0.259007 0.285206 -0.234842 0.061233 -0.057752 -0.138213 -0.114667 -0.102529 0.016232 0.203935 0.112027 -0.203699 -0.179955 -0.040976 -0.265255 -0.056934 0.026129 0.218053 0.070547 -0.034865 0.162322
12 0.100258 -0.213195 0.003940 -0.058723 -0.320851 0.034846 0.052300 -0.108651 0.029101 0.086701 -0.105843 -0.001745 0.110524 0.060522 0.179131 0.152489 -0.013609 0.199322 0.015855 -0.078802 0.093698 -0.209786 -0.076643 -0.133856 -0.045747 -0.028925 -0.126416 0.013259 -0.124710 0.135674 -0.333623 0.062072 -0.079398 -0.131531 0.060174 0.153482 -0.068071 -0.355443 -0.094884 -0.059870 0.142173 0.026630 0.103302 -0.130813 -0.045486 -0.143240 -0.198312 -0.013934 -0.076757 0.229029 0.139840 0.076238 -0.014131 -0.128624 -0.152417 0.012102 -0.036266 0.110484 -0.096923 0.030347 -0.081103 -0.152341 -0.035640 0.017336 -0.009818 0.032281 -0.008795 0.028815 0.217098 0.247961 0.037074 -0.046407 -0.112492 0.112831 0.091661 0.141474 -0.010337 -0.087308 -0.081553 0.032748 -0.125818 0.092263 0.181598 0.015237 0.172206 0.222727 0.114732 -0.049461 0.056066 0.075999 -0.006654 -0.050491 0.046985 0.062938 -0.087946 -0.141381 -0.074813 0.128346 -0.015853 -0.052961 0.113856 0.020824 0.182984 0.230305 0.145656 0.093854 -0.026099 -0.068623 0.210885 -0.159446 -0.113253 -0.022335 -0.216011 0.187377 0.038813 -0.124204 0.160667 0.097957 0.065968 -0.077436 0.009515 -0.320045 0.131880 0.074474 0.431146 -0.000349 0.101586 0.202952
11 0.092026 -0.209782 -0.004102 -0.083532 -0.312120 0.014298 0.059286 -0.106676 0.019024 0.063281 -0.090836 -0.012914 0.122544 0.053225 0.193144 0.172440 0.040088 0.187621 -0.019988 -0.084194 0.118167 -0.220846 -0.060673 -0.146892 -0.045462 -0.026730 -0.077868 0.019928 -0.141437 0.170042 -0.327955 0.064713 -0.082764 -0.125060 0.095769 0.178371 -0.094702 -0.382726 -0.084497 -0.028392 0.188876 0.045264 0.115305 -0.138228 -0.050918 -0.145946 -0.212793 -0.007051 -0.041317 0.253241 0.139605 0.110281 -0.002992 -0.145475 -0.173395 0.027781 -0.012917 0.120439 -0.122132 0.036566 -0.097462 -0.174226 -0.048817 0.026381 -0.012602 0.002838 -0.028043 0.015994 0.229393 0.226425 0.050657 -0.043705 -0.124068 0.128856 0.120630 0.097631 -0.021178 -0.111501 -0.100353 0.022631 -0.118120 0.051900 0.179323 0.009101 0.159087 0.228258 0.087975 -0.092287 0.076364 0.100486 -0.026832 -0.045373 0.053367 0.060857 -0.052512 -0.112982 -0.109057 0.113683 0.011461 -0.085424 0.141880 0.016885 0.169271 0.233826 0.149415 0.108273 -0.034622 -0.067447 0.203788 -0.165000 -0.174196 -0.017114 -0.216527 0.192927 0.070142 -0.123823 0.167489 0.098650 0.078834 -0.091039 0.002275 -0.322205 0.155784 0.072364 0.451249 0.009276 0.124115 0.187395
