2 128
0 0.070851 -0.028384 -0.089149 0.043957 -0.300862 -0.044620 -0.053987 0.037705 -0.054053 0.100124 -0.223503 0.112009 0.101908 0.052825 -0.040380 0.221465 -0.007910 0.149388 -0.191306 0.215372 -0.021817 0.071224 0.065204 -0.076158 -0.036278 -0.094361 -0.184868 0.170991 -0.080769 -0.089547 -0.168651 0.020975 -0.074861 0.127747 -0.109111 0.110164 -0.103052 -0.110699 -0.107253 -0.076225 -0.048574 -0.203098 0.193405 0.048379 0.182905 0.058178 -0.194839 -0.021506 -0.137040 0.220569 -0.046316 -0.013154 0.133101 -0.087344 0.208889 -0.186940 -0.289875 0.029215 0.133874 -0.125716 0.122931 0.066751 0.083964 0.158612 0.019323 0.331771 0.050301 0.199279 0.116412 0.171134 0.137706 -0.030613 -0.002055 -0.025472 0.072267 -0.038941 0.001901 0.097467 -0.061883 0.172534 0.174200 0.096459 0.070882 -0.133226 -0.094127 0.175330 0.063240 -0.027468 0.033189 -0.108963 0.155788 0.034854 -0.138606 0.032201 0.047051 -0.132964 0.042955 -0.019349 -0.112114 -0.094663 0.000731 -0.043482 0.038796 0.050324 0.102365 -0.013642 -0.161691 -0.218633 0.229546 -0.202401 0.002971 -0.044481 -0.121307 -0.100047 -0.071924 0.010023 0.184663 0.102163 -0.175461 -0.157839 -0.045048 -0.236451 -0.040673 0.033940 0.200126 0.075434 -0.007441 0.131501
1 0.067490 -0.206499 -0.019223 -0.083917 -0.290082 0.017385 0.053248 -0.095248 0.009951 0.037254 -0.081485 -0.014291 0.113950 0.045527 0.169953 0.168425 0.075889 0.156265 -0.059633 -0.076062 0.110925 -0.206991 -0.050405 -0.154831 -0.046043 -0.034178 -0.054448 0.017725 -0.143666 0.155178 -0.291691 0.044634 -0.074989 -0.102937 0.120684 0.168625 -0.093717 -0.358716 -0.080091 -0.018239 0.188233 0.051207 0.106277 -0.121768 -0.035464 -0.139411 -0.205207 0.002422 -0.016356 0.237998 0.126967 0.116365 -0.000523 -0.155849 -0.178485 0.038345 0.015521 0.118268 -0.130265 0.034028 -0.092763 -0.170225 -0.055333 0.049337 -0.027661 -0.011539 -0.029761 0.011015 0.202649 0.192277 0.053436 -0.025304 -0.135438 0.119215 0.119462 0.057913 -0.031301 -0.103904 -0.101282 0.023023 -0.096925 0.009641 0.162653 -0.006009 0.127345 0.205152 0.055820 -0.095115 0.070359 0.077156 -0.023612 -0.028747 0.067282 0.057026 -0.033273 -0.077469 -0.118192 0.092673 0.025222 -0.106448 0.140958 0.029904 0.148168 0.221252 0.129744 0.113255 -0.032149 -0.052422 0.168262 -0.142168 -0.198439 -0.011352 -0.205003 0.165537 0.078496 -0.122651 0.161790 0.091170 0.069612 -0.090113 -0.007938 -0.303142 0.149129 0.076539 0.415769 0.011691 0.125800 0.162358
